digraph Tree {
node [shape=box, style="filled", color="black", fontname="helvetica"] ;
edge [fontname="helvetica"] ;
0 [label="Raw Ethanol <= 19571.5\ngini = 0.5\nsamples = 22260\nvalue = [11130, 11130]\nclass = 0", fillcolor="#ffffff"] ;
1 [label="NC2.5 <= 0.023\ngini = 0.058\nsamples = 7943\nvalue = [239, 7704]\nclass = 1", fillcolor="#3fa0e6"] ;
0 -> 1 [labeldistance=2.5, labelangle=45, headlabel="True"] ;
2 [label="gini = 0.0\nsamples = 184\nvalue = [184, 0]\nclass = 0", fillcolor="#e58139"] ;
1 -> 2 ;
3 [label="Raw H2 <= 12566.0\ngini = 0.014\nsamples = 7759\nvalue = [55, 7704]\nclass = 1", fillcolor="#3a9ee5"] ;
1 -> 3 ;
4 [label="gini = 0.0\nsamples = 55\nvalue = [55, 0]\nclass = 0", fillcolor="#e58139"] ;
3 -> 4 ;
5 [label="gini = 0.0\nsamples = 7704\nvalue = [0, 7704]\nclass = 1", fillcolor="#399de5"] ;
3 -> 5 ;
6 [label="Raw H2 <= 13041.5\ngini = 0.364\nsamples = 14317\nvalue = [10891, 3426]\nclass = 0", fillcolor="#eda977"] ;
0 -> 6 [labeldistance=2.5, labelangle=-45, headlabel="False"] ;
7 [label="eCO2[ppm] <= 496.0\ngini = 0.055\nsamples = 7343\nvalue = [7135, 208]\nclass = 0", fillcolor="#e6853f"] ;
6 -> 7 ;
8 [label="Raw H2 <= 13034.5\ngini = 0.006\nsamples = 7146\nvalue = [7126, 20]\nclass = 0", fillcolor="#e5813a"] ;
7 -> 8 ;
9 [label="Raw H2 <= 13028.5\ngini = 0.002\nsamples = 7071\nvalue = [7065, 6]\nclass = 0", fillcolor="#e58139"] ;
8 -> 9 ;
10 [label="eCO2[ppm] <= 470.5\ngini = 0.001\nsamples = 7008\nvalue = [7005, 3]\nclass = 0", fillcolor="#e58139"] ;
9 -> 10 ;
11 [label="Raw H2 <= 12923.5\ngini = 0.001\nsamples = 6979\nvalue = [6977, 2]\nclass = 0", fillcolor="#e58139"] ;
10 -> 11 ;
12 [label="gini = 0.0\nsamples = 6506\nvalue = [6506, 0]\nclass = 0", fillcolor="#e58139"] ;
11 -> 12 ;
13 [label="gini = 0.008\nsamples = 473\nvalue = [471, 2]\nclass = 0", fillcolor="#e5823a"] ;
11 -> 13 ;
14 [label="gini = 0.067\nsamples = 29\nvalue = [28, 1]\nclass = 0", fillcolor="#e68640"] ;
10 -> 14 ;
15 [label="gini = 0.091\nsamples = 63\nvalue = [60, 3]\nclass = 0", fillcolor="#e68743"] ;
9 -> 15 ;
16 [label="gini = 0.304\nsamples = 75\nvalue = [61, 14]\nclass = 0", fillcolor="#eb9e66"] ;
8 -> 16 ;
17 [label="gini = 0.087\nsamples = 197\nvalue = [9, 188]\nclass = 1", fillcolor="#42a2e6"] ;
7 -> 17 ;
18 [label="Temperature[C] <= 9.38\ngini = 0.497\nsamples = 6974\nvalue = [3756, 3218]\nclass = 0", fillcolor="#fbede3"] ;
6 -> 18 ;
19 [label="Humidity[%] <= 40.675\ngini = 0.013\nsamples = 1632\nvalue = [11, 1621]\nclass = 1", fillcolor="#3a9ee5"] ;
18 -> 19 ;
20 [label="gini = 0.0\nsamples = 11\nvalue = [11, 0]\nclass = 0", fillcolor="#e58139"] ;
19 -> 20 ;
21 [label="gini = 0.0\nsamples = 1621\nvalue = [0, 1621]\nclass = 1", fillcolor="#399de5"] ;
19 -> 21 ;
22 [label="NC2.5 <= 0.032\ngini = 0.419\nsamples = 5342\nvalue = [3745, 1597]\nclass = 0", fillcolor="#f0b78d"] ;
18 -> 22 ;
23 [label="NC2.5 <= 0.013\ngini = 0.297\nsamples = 4506\nvalue = [3687, 819]\nclass = 0", fillcolor="#eb9d65"] ;
22 -> 23 ;
24 [label="Temperature[C] <= 23.355\ngini = 0.5\nsamples = 1119\nvalue = [576, 543]\nclass = 0", fillcolor="#fef8f4"] ;
23 -> 24 ;
25 [label="Temperature[C] <= 18.212\ngini = 0.454\nsamples = 833\nvalue = [290, 543]\nclass = 1", fillcolor="#a3d1f3"] ;
24 -> 25 ;
26 [label="gini = 0.0\nsamples = 275\nvalue = [275, 0]\nclass = 0", fillcolor="#e58139"] ;
25 -> 26 ;
27 [label="gini = 0.052\nsamples = 558\nvalue = [15, 543]\nclass = 1", fillcolor="#3ea0e6"] ;
25 -> 27 ;
28 [label="gini = 0.0\nsamples = 286\nvalue = [286, 0]\nclass = 0", fillcolor="#e58139"] ;
24 -> 28 ;
29 [label="Temperature[C] <= 18.365\ngini = 0.15\nsamples = 3387\nvalue = [3111, 276]\nclass = 0", fillcolor="#e78c4b"] ;
23 -> 29 ;
30 [label="gini = 0.0\nsamples = 1354\nvalue = [1354, 0]\nclass = 0", fillcolor="#e58139"] ;
29 -> 30 ;
31 [label="Humidity[%] <= 48.845\ngini = 0.235\nsamples = 2033\nvalue = [1757, 276]\nclass = 0", fillcolor="#e99558"] ;
29 -> 31 ;
32 [label="gini = 0.003\nsamples = 700\nvalue = [699, 1]\nclass = 0", fillcolor="#e58139"] ;
31 -> 32 ;
33 [label="gini = 0.327\nsamples = 1333\nvalue = [1058, 275]\nclass = 0", fillcolor="#eca26c"] ;
31 -> 33 ;
34 [label="Humidity[%] <= 46.18\ngini = 0.129\nsamples = 836\nvalue = [58, 778]\nclass = 1", fillcolor="#48a4e7"] ;
22 -> 34 ;
35 [label="gini = 0.0\nsamples = 41\nvalue = [41, 0]\nclass = 0", fillcolor="#e58139"] ;
34 -> 35 ;
36 [label="gini = 0.042\nsamples = 795\nvalue = [17, 778]\nclass = 1", fillcolor="#3d9fe6"] ;
34 -> 36 ;
}